{
  "target": "logKow",
  "method": "ols",
  "n_train": 3282,
  "alpha": 0.0,
  "r2_cv": 0.9218,
  "rmse_cv": 0.5801,
  "intercept": 0.269534017764341,
  "weights": {
    "C1": 0.4591836713204202,
    "C2": 0.2534681311016971,
    "C3": -0.054114657502862706,
    "C4": -0.10827668527052323,
    "C5": -0.5493187634979181,
    "C6": 0.3100408861346398,
    "C7": 0.10138836592068384,
    "C8": 0.6927718723199913,
    "C9": 0.6259026606017228,
    "C10": 0.4709079336197895,
    "C11": 0.4799799868413145,
    "C12": 0.3127759388591863,
    "C13": 0.5636263989451665,
    "C14": -0.07758967587704302,
    "C15": 0.14637182480965397,
    "C16": 0.16476148233000903,
    "C17": 0.0036890738008570623,
    "C18": 0.2853258529745215,
    "C19": 0.31201721971061497,
    "C20": 0.30685018265555186,
    "C21": 0.012774239660467646,
    "C22": 0.07104108912962381,
    "C23": 0.4520560530718838,
    "C24": 0.14288946278797576,
    "C25": -1.3538364879173457,
    "C26": 0.5802735566621688,
    "C27": 0.31252626983515425,
    "CS": -0.2094805111603879,
    "H1": -1.887379141862766e-15,
    "H2": -2.886579864025407e-15,
    "H3": 0.4024501942779305,
    "H4": -1.6653345369377348e-15,
    "HS": 1.4155343563970746e-15,
    "N1": -1.018176428373104,
    "N2": -0.6356388582660975,
    "N3": -0.6265947645370733,
    "N4": -0.016547800788605405,
    "N5": 0.4024501942779237,
    "N6": 0.697280853611461,
    "N7": -0.11439912688898973,
    "N8": 0.19583213973382718,
    "N9": -0.4077443566668588,
    "N10": -1.693738647995263,
    "N11": -0.5472329862810138,
    "N12": -1.4703061839221565,
    "N13": 1.1457953644169645,
    "N14": -3.3632435601989834,
    "NS": -0.049444603035844636,
    "O1": 0.05366701379372962,
    "O2": -0.5648387629327053,
    "O3": 0.15768693399161438,
    "O4": -0.14476278458955533,
    "O5": -0.5280659200185781,
    "O6": -0.6142132539416236,
    "O12": -1.332661047302008,
    "O7": 0.8115061281196593,
    "O8": 0.6213322683829472,
    "O9": -0.025866739019909324,
    "O10": 0.4996711004893874,
    "O11": 0.34963936377717075,
    "OS": -1.4140894487801812,
    "F": 0.3356992495436855,
    "Cl": 0.6909559231848168,
    "Br": 0.7881905793104524,
    "I": 1.4000519473540232,
    "Hal": -4.440892098500626e-16,
    "P": 0.11107971884313592,
    "S2": 0.3300057910252234,
    "S1": 0.8060362706041291,
    "S3": 0.23888180011873478,
    "Me1": 0.6830166036237398,
    "Me2": -0.48615286395604473,
    "SG_HB_INTRAMOL": 0.14360728342957121,
    "SG_ALKANE": 0.07362483921036045,
    "SG_UNSAT_HC": 0.08480685489955544,
    "SG_EXTRA_COOH": 0.4468636266516415,
    "SG_EXTRA_OH": -0.19908491704040032,
    "SG_ENDOCYCLIC_CC": -0.09170141583599212
  }
}