{
  "target": "logKow",
  "n_train": 3234,
  "alpha": 51.794746792312125,
  "r2_cv": 0.898,
  "rmse_cv": 0.6643,
  "intercept": 0.39898085594177246,
  "weights": {
    "C1": 0.4302714968786162,
    "C2": 0.2401798264127338,
    "C3": -0.050206829266454825,
    "C4": -0.056814662689291015,
    "C5": -0.21977854290845178,
    "C6": 0.301891789448759,
    "C7": 0.06566569735583677,
    "C8": 0.5839244911244263,
    "C9": 0.5361743069237451,
    "C10": 0.4054818233197553,
    "C11": 0.45449123278148723,
    "C12": 0.3216531576096842,
    "C13": 0.633905376403996,
    "C14": -0.062089665544327134,
    "C15": 0.22286671428147978,
    "C16": 0.2691644440752175,
    "C17": 0.221268814154275,
    "C18": 0.2596791074255233,
    "C19": 0.31921694234505726,
    "C20": 0.3418143758367527,
    "C21": 0.08920357698601414,
    "C22": 0.10920671386146913,
    "C23": 0.43825516023767525,
    "C24": 0.20934254892637652,
    "C25": -0.5731015388350691,
    "C26": 0.5362228459266912,
    "C27": 0.16324808032974442,
    "CS": -0.18859787409144962,
    "H1": 0.0,
    "H2": 0.0,
    "H3": 0.1380387555097577,
    "H4": 0.0,
    "HS": 0.0,
    "N1": -1.0366575199939365,
    "N2": -0.616674779138293,
    "N3": -0.6560678279285841,
    "N4": -0.02418914651484807,
    "N5": 0.13803640184658897,
    "N6": 0.3674360191463351,
    "N7": -0.12399611128636677,
    "N8": 0.13279466087947495,
    "N9": -0.3831126623123667,
    "N10": -1.8842396721597803,
    "N11": -0.5119331960226515,
    "N12": -1.6944431690251531,
    "N13": 0.3288672437726409,
    "N14": 0.0,
    "NS": -0.11086426870654495,
    "O1": 0.057922227268575543,
    "O2": -0.5441317594826355,
    "O3": 0.1320942933727777,
    "O4": -0.11614466594861636,
    "O5": -0.14428766403617574,
    "O6": -0.4565361434913845,
    "O12": -1.1678703440647022,
    "O7": 0.3686773348683451,
    "O8": -0.14745560387661252,
    "O9": -0.32101808964084455,
    "O10": 0.1304416902849061,
    "O11": 0.05583842952453425,
    "OS": -1.4814845691362932,
    "F": 0.3113496657422601,
    "Cl": 0.5961698299494489,
    "Br": 0.6706613516710582,
    "I": 1.1526609494407434,
    "Hal": 0.0,
    "P": 0.39422327994446155,
    "S2": 0.07308609506128909,
    "S1": 0.6817280961813009,
    "S3": 0.2696261336068204,
    "Me1": 0.9744575863859808,
    "Me2": -0.3824255593146161,
    "SG_HB_INTRAMOL": 0.11358052755718048,
    "SG_ALKANE": 0.08967153216519809,
    "SG_UNSAT_HC": 0.08259152682075602,
    "SG_EXTRA_COOH": 0.49108040187848084,
    "SG_EXTRA_OH": -0.24361960209259645,
    "SG_ENDOCYCLIC_CC": -0.08328343814534954
  }
}