{
  "target": "logKow",
  "n_train": 3332,
  "alpha": 37.27593720314938,
  "r2_cv": 0.9039,
  "rmse_cv": 0.6433,
  "intercept": 0.40056300163269043,
  "weights": {
    "C1": 0.43859706340543286,
    "C2": 0.23876511376557927,
    "C3": -0.01666356793610209,
    "C4": -0.06809599713213259,
    "C5": -0.1694951167766141,
    "C6": 0.30400871195511175,
    "C7": 0.09833895713230273,
    "C8": 0.6449043289791059,
    "C9": 0.619669089068946,
    "C10": 0.43607429869654213,
    "C11": 0.5171008524386504,
    "C12": 0.3210966381650985,
    "C13": 0.9455214624224462,
    "C14": -0.08075397721981839,
    "C15": 0.2211611917003435,
    "C16": 0.2528516873491934,
    "C17": 0.11469205990495658,
    "C18": 0.26986771977249036,
    "C19": 0.31632286305792673,
    "C20": 0.28221168856239165,
    "C21": 0.03418820777150731,
    "C22": 0.06023402702755308,
    "C23": 0.49965831344104167,
    "C24": 0.2027412667941863,
    "C25": -0.7022154620118275,
    "C26": 0.5456654333041352,
    "C27": 0.3632962581285605,
    "CS": -0.22173865000792983,
    "H1": 0.0,
    "H2": 0.0,
    "H3": 0.16263059244110023,
    "H4": 0.0,
    "HS": 0.0,
    "N1": -1.0897260872050423,
    "N2": -0.7187076948033302,
    "N3": -0.6149476774718179,
    "N4": -0.007069856766479622,
    "N5": 0.16263657866971348,
    "N6": 0.2957247179435381,
    "N7": -0.22695753931382878,
    "N8": 0.07038753713897349,
    "N9": -0.4696402801380893,
    "N10": -2.27707135089539,
    "N11": -0.5410666846836403,
    "N12": -2.1617711828104946,
    "N13": 0.2788339999301698,
    "N14": -2.253972836877087,
    "NS": -0.2853124407271068,
    "O1": 0.03435336166401771,
    "O2": -0.7027928169963199,
    "O3": 0.03150531653011726,
    "O4": -0.2538575305819243,
    "O5": -0.08634914733094493,
    "O6": -0.5165125754049109,
    "O12": -0.8836571336493012,
    "O7": 0.8025464468080151,
    "O8": -0.08805847915055653,
    "O9": -0.3358986301224241,
    "O10": 0.14016308103858982,
    "O11": 0.02616226471680344,
    "OS": -1.2281370636320712,
    "F": 0.37058604212136714,
    "Cl": 0.6101318802183554,
    "Br": 0.6881267219128857,
    "I": 1.0702322523260102,
    "Hal": 0.0,
    "P": 0.023473297258673618,
    "S2": 0.17658195117906766,
    "S1": 0.6862212734151778,
    "S3": 0.2382868340366293,
    "Me1": 0.6524033719023803,
    "Me2": -0.7666437434781804,
    "SG_HB_INTRAMOL": 0.14865068813160723,
    "SG_ALKANE": 1.035678598437887,
    "SG_UNSAT_HC": 0.33403845059794574,
    "SG_EXTRA_COOH": 0.3369350687488903,
    "SG_ENDOCYCLIC_CC": -0.08535653253513469
  }
}